// Autogenerated by python -m sk_bias emit_code

namespace n2k {
namespace sk_globals {

static double bias_coeffs[512] = {
  0.0018437357020770762,  0.4234818333361899,  3.084235857704284,  19.605219754737764,
  -0.0019930847752644976,  0.3432293516497397,  2.5582592122306935,  18.378343882520607,
  -0.004758143762124911,  0.27655521360487245,  2.0838260355010583,  16.94960132117435,
  -0.006665268882807052,  0.22191078799265893,  1.6643220596547592,  15.363975965839654,
  -0.007899551873284283,  0.17771790792025755,  1.3009136564974177,  13.678911958282505,
  -0.008617622140482561,  0.14243153521418245,  0.9926457323445094,  11.95702580218459,
  -0.008949128692732788,  0.1145913579905766,  0.7367249769856739,  10.259316348397832,
  -0.008999070950063581,  0.09286023773174885,  0.5289186113027503,  8.639810020161967,
  -0.008850643578908635,  0.07604904666858657,  0.36400996569523464,  7.141795348012124,
  -0.008568308216489351,  0.06312881631521705,  0.23625057657000095,  5.7959176238364165,
  -0.008200863776880452,  0.053231993478810594,  0.13976995875873205,  4.619772563106455,
  -0.007784347962488836,  0.04564517253887247,  0.06890605798434693,  3.619056578856682,
  -0.007344659482175997,  0.03979569691871986,  0.0184583377636061,  2.7892258742503317,
  -0.006899839628643711,  0.035234637559558,  -0.016161359455051504,  2.118178576158101,
  -0.006461991475778639,  0.031618057693577846,  -0.038847596585583594,  1.5886374202673372,
  -0.006038844610107841,  0.028688328109414133,  -0.05279377814736045,  1.1806192343355697,
  -0.005634993567438462,  0.026256606945384665,  -0.06052916551288795,  0.8733588279136953,
  -0.005252850165580636,  0.024187340779199932,  -0.06399688091641975,  0.647066828183569,
  -0.004893355239351749,  0.022385040727375127,  -0.06463729600045513,  0.48374974912438284,
  -0.004556495518687198,  0.020783578207627332,  -0.06348941469582416,  0.3680864350026656,
  -0.004241668146079958,  0.019337695702102302,  -0.0612727020322823,  0.287335347878925,
  -0.003947930002634159,  0.018016638577435632,  -0.05847261699318647,  0.2315252468688834,
  -0.003674162763234179,  0.016799443304595478,  -0.0554030433306694,  0.19304033802467316,
  -0.003419178282271229,  0.015671588781241752,  -0.052255444978981845,  0.1661451491672458,
  -0.0031817830980043205,  0.014622785730232122,  -0.049150868527703576,  0.1470935687538911,
  -0.002960815867537603,  0.013645339259873877,  -0.04614836813539061,  0.13295978949460155,
  -0.002755167511439671,  0.01273328345742897,  -0.043283172456085865,  0.12203852026141918,
  -0.002563790764914531,  0.011881713448779863,  -0.04056944775334113,  0.11317289182622448,
  -0.0023857035780503466,  0.011086446755168558,  -0.03801195781306696,  0.1056686213268261,
  -0.002219989260192179,  0.01034383517505333,  -0.03561251465293926,  0.09918035575537114,
  -0.0020657952620253273,  0.009650656989769857,  -0.033369741074693406,  0.09345526547985462,
  -0.0019223319137238182,  0.009004153667923726,  -0.0312880941307858,  0.08851002786828303,
  -0.0017888721736600832,  0.008402117338306425,  -0.02938212284061612,  0.08463444683003024,
  -0.00166475341240635,  0.00784299303674274,  -0.027671036191350053,  0.08203498383226361,
  -0.0015493823960139874,  0.00732620692597763,  -0.026195091978934024,  0.08130245657229071,
  -0.001442244894119371,  0.006852507580905609,  -0.02501526784908487,  0.08318044581392076,
  -0.0013429216759055507,  0.006424514984761488,  -0.024224058479830942,  0.0887242570024608,
  -0.0012511130225727474,  0.006047471598588316,  -0.023961600807978958,  0.09960367185702282,
  -0.00116667422715655,  0.005730080383248295,  -0.02441377083164329,  0.11764903858421494,
  -0.0010896648037141965,  0.0054856944952597075,  -0.02583280316775927,  0.1452289872831903,
  -0.0010204142212733025,  0.005333683293780919,  -0.02855128178680352,  0.18536745310119024,
  -0.0009596068430706151,  0.005300955913746464,  -0.032987571705007344,  0.24151687503036323,
  -0.0009083883230884826,  0.00542364449649213,  -0.03964987239987754,  0.31734593534202,
  -0.0008684949472077541,  0.005748986558948843,  -0.04915623055353522,  0.4172753443272015,
  -0.0008424062870189264,  0.006336871234111641,  -0.062197447741027576,  0.5449403208185644,
  -0.0008335200773730289,  0.007261701851444259,  -0.07956845641706417,  0.7045375570887631,
  -0.0008463464965962064,  0.0086134797777504,  -0.10211577041309315,  0.8992241886444537,
  -0.0008867171189907985,  0.01049877982371683,  -0.1307303368907923,  1.1315243294957293,
  -0.0009620018624092452,  0.01304087699542222,  -0.16629639847360433,  1.40241328217958,
  -0.0010813254320667376,  0.01637927946923412,  -0.20965840689950704,  1.7113718071777826,
  -0.0012557732400553245,  0.020668355335111244,  -0.26157616620412144,  2.0562758361920297,
  -0.001498575727665541,  0.026074803418037362,  -0.3226422075065323,  2.432030694850221,
  -0.0018252595759258305,  0.032774662841660536,  -0.3932774402053385,  2.832310990270341,
  -0.00225375455924004,  0.04094875710958236,  -0.47362742861992263,  3.2475427958270995,
  -0.002804445820793422,  0.05077798966676283,  -0.5635688302293126,  3.666935699773488,
  -0.003500163105456089,  0.06243756405854127,  -0.662655355936065,  4.077941887240615,
  -0.0043661008841979765,  0.0760908227868633,  -0.7700875934733598,  4.466354069285268,
  -0.005429666211521411,  0.09188320387260165,  -0.8847373758424086,  4.817890637117792,
  -0.006720254358292044,  0.10993597285837708,  -1.0051380630809492,  5.118024488445379,
  -0.008268955567122926,  0.13034058305250087,  -1.1295268565538683,  5.353188414694153,
  -0.010108199435561849,  0.1531535265260686,  -1.255873242423824,  5.510851982704134,
  -0.01227134624590609,  0.1783924603741696,  -1.3819786853262048,  5.581744837822049,
  -0.014792236852012808,  0.20603275473118293,  -1.5054784907313319,  5.55788566845926,
  -0.017704714382386966,  0.23600611087671902,  -1.6239791527047935,  5.435291489440122,
  -0.02104213191650639,  0.2681999022724178,  -1.735106983732982,  5.213137318496837,
  -0.024836860493409496,  0.30245812211643386,  -1.8365988027610243,  4.894360966586677,
  -0.02911981128874097,  0.3385833961322752,  -1.9263476838518658,  4.484375682091557,
  -0.03391998466560153,  0.3763405240711607,  -2.002506372745772,  3.992406112753591,
  -0.039264057193182156,  0.41546083897846847,  -2.063540026224918,  3.430929405090215,
  -0.045176015774920586,  0.45564708068211607,  -2.1082178566862333,  2.8132191870685412,
  -0.05167684580363607,  0.4965795175435091,  -2.1356918621706966,  2.154693031058117,
  -0.058784278074387464,  0.5379221150369986,  -2.1455037423688723,  1.4720282966442118,
  -0.06651259691313816,  0.5793288538835846,  -2.137568773052623,  0.7817654582897531,
  -0.07487250998289574,  0.6204501687164808,  -2.112179594408879,  0.1004962649167256,
  -0.08387107837681884,  0.660938907208113,  -2.069942833134763,  -0.5573977046436579,
  -0.09351170406520715,  0.7004564382519977,  -2.0118043301061337,  -1.1777800028049756,
  -0.1037941705096892,  0.7386776516010302,  -1.938955340604718,  -1.7493859848034055,
  -0.11471473134370891,  0.7752959747596043,  -1.8528510685889223,  -2.2613927123912454,
  -0.12626624134655762,  0.8100266249623473,  -1.755039742576391,  -2.708357296026228,
  -0.1384383236219222,  0.8426109795362643,  -1.6472840613191901,  -3.0838381746282018,
  -0.15121756669381203,  0.8728182536916264,  -1.5313854222965655,  -3.384958946335771,
  -0.16458774541274823,  0.9004472408314221,  -1.409114923361574,  -3.6134113965389836,
  -0.17853005970250146,  0.9253285731539653,  -1.2823613485338121,  -3.7677449288482396,
  -0.19302338565521726,  0.9473232850501715,  -1.1527782978960774,  -3.8554390419575357,
  -0.2080445338422312,  0.9663251810974853,  -1.022159899799679,  -3.876668196939475,
  -0.22356851032785197,  0.9822575621067494,  -0.8919756453389991,  -3.84119630215112,
  -0.23956877633717655,  0.9950744253885762,  -0.7637314834700601,  -3.752983219181257,
  -0.25601750314867533,  1.004757271441477,  -0.6386597075263345,  -3.6216396854887085,
  -0.27288581932374956,  1.0113149126727092,  -0.5179751718169078,  -3.4515146572972633,
  -0.290144047881119,  1.0147799117579297,  -0.4026057610159362,  -3.2520231167770652,
  -0.3077619315444198,  1.0152074667929123,  -0.293369416105201,  -3.0302744590295463,
  -0.3257088446531329,  1.0126728162119432,  -0.19092472102813834,  -2.7929602304331937,
  -0.3439539906817817,  1.0072690920796317,  -0.09580396316161315,  -2.5452619378211767,
  -0.3624665847421984,  0.9991045225346833,  -0.008343051329377299,  -2.293921790521212,
  -0.3812160207074986,  0.9883001826270612,  0.07127989502776326,  -2.0455595588402216,
  -0.40017202287646336,  0.9749888581080803,  0.14287682722874645,  -1.801219179615199,
  -0.41930478233652435,  0.9593109648665744,  0.20653348277871963,  -1.5674757056853312,
  -0.43858507834823324,  0.9414148800520581,  0.26222102455013596,  -1.3419893245874095,
  -0.457984385279147,  0.9214519692291069,  0.3102731740603168,  -1.1324934528690505,
  -0.4774749656150794,  0.8995776700896025,  0.35092410052011824,  -0.9395954544877025,
  -0.4970299498418205,  0.8759489986306164,  0.3844262962041779,  -0.7616394684972465,
  -0.5166234038755029,  0.8507219404641266,  0.41124723958765536,  -0.6032588735944577,
  -0.5362303849048673,  0.8240528785669348,  0.4315893465577706,  -0.45669376249226507,
  -0.5558269864455703,  0.796092385995486,  0.44621693603268164,  -0.3345276006447021,
  -0.5753903734545687,  0.766991401752577,  0.4553017538960467,  -0.22593277742361528,
  -0.594898808358532,  0.7368949154068004,  0.4592653962813629,  -0.12865546625128793,
  -0.6143316688163631,  0.7059415947734318,  0.45874884483895584,  -0.04908877072745439,
  -0.6336694580093012,  0.6742652696649503,  0.45425079241907795,  0.012120543819255392,
  -0.652893808265472,  0.6419952805119564,  0.44600462247651323,  0.06408271686699238,
  -0.671987478773515,  0.6092533351209894,  0.43442125095886985,  0.10856759552474059,
  -0.6909343480693215,  0.5761532008506691,  0.4200774654935035,  0.1405188061314308,
  -0.7097194020409532,  0.5428030801102961,  0.4033403234352974,  0.16161950988869614,
  -0.7283287180532814,  0.5093046006313529,  0.3844660559298246,  0.17741607106197024,
  -0.7467494458428221,  0.4757515272872723,  0.3638298645050656,  0.18796213055646183,
  -0.7649697857795068,  0.44223093155337534,  0.3417495746996315,  0.1940448822714867,
  -0.7829789650347543,  0.4088209568739139,  0.31883589750168073,  0.1845129956055085,
  -0.8007672122209817,  0.37559772966274346,  0.29492918693722625,  0.17657239871907293,
  -0.8183257310318415,  0.34262753877991153,  0.27035257477655605,  0.16806198669654387,
  -0.8356466733784167,  0.30997047667346334,  0.2454080646723364,  0.15613246370082906,
  -0.8527231125751265,  0.2776821034363124,  0.2200753999404628,  0.15032290518893926,
  -0.8695490170763458,  0.2458078889412257,  0.19501523005805474,  0.1319791412680559,
  -0.8861192253496697,  0.2143927998793557,  0.17005962928603113,  0.11336558889816466,
  -0.9024294224876923,  0.18347431766294525,  0.1452925290709487,  0.09790838767397053,
  -0.9184761192443098,  0.15308433022955367,  0.12092810525564723,  0.08125038805864053,
  -0.934256634298803,  0.12325154270204307,  0.09687207414754422,  0.0707753727909744,
  -0.9497690807073822,  0.09399731097435193,  0.07340716098110646,  0.05986056705290446,
  -0.9650123577317733,  0.06533743539522163,  0.05106147102606165,  0.030546304362266154,
  -0.9799861495589,  0.03729282283224224,  0.028845838288358804,  0.022613654960999277
};

double *get_bsigma_coeffs() { return bias_coeffs; }

}}  // namespace n2k::global_sk
